digraph Tree {
node [shape=box, style="filled, rounded", color="black", fontname="helvetica"] ;
graph [ranksep=equally, splines=polyline] ;
edge [fontname="helvetica"] ;
0 [label=<coregistration/cost_function/normalised_cross_correlation &le; 0.5<br/>squared_error = 0.069<br/>samples = 100.0%<br/>value = 0.487>, fillcolor="#efb286"] ;
1 [label=<spatial_smoothing/fwhm &le; 3.0<br/>squared_error = 0.028<br/>samples = 74.6%<br/>value = 0.614>, fillcolor="#eb9d64"] ;
0 -> 1 [labeldistance=2.5, labelangle=45, headlabel="True"] ;
2 [label=<spatial_smoothing/fwhm &le; 1.0<br/>squared_error = 0.011<br/>samples = 19.0%<br/>value = 0.445>, fillcolor="#f1b992"] ;
1 -> 2 ;
3 [label=<slice_timing_correction/ref_slice/first &le; 0.5<br/>squared_error = 0.003<br/>samples = 9.7%<br/>value = 0.367>, fillcolor="#f3c7a7"] ;
2 -> 3 ;
4 [label=<squared_error = 0.002<br/>samples = 6.1%<br/>value = 0.393>, fillcolor="#f2c2a0"] ;
3 -> 4 ;
5 [label=<squared_error = 0.0<br/>samples = 3.6%<br/>value = 0.323>, fillcolor="#f5cfb3"] ;
3 -> 5 ;
6 [label=<signal_modeling/hrf/temporal_dispersion_derivs &le; 0.5<br/>squared_error = 0.006<br/>samples = 9.3%<br/>value = 0.526>, fillcolor="#eeab7c"] ;
2 -> 6 ;
7 [label=<squared_error = 0.005<br/>samples = 6.0%<br/>value = 0.566>, fillcolor="#eca571"] ;
6 -> 7 ;
8 [label=<squared_error = 0.0<br/>samples = 3.3%<br/>value = 0.454>, fillcolor="#f0b88f"] ;
6 -> 8 ;
9 [label=<signal_modeling/hrf/temporal_dispersion_derivs &le; 0.5<br/>squared_error = 0.021<br/>samples = 55.6%<br/>value = 0.671>, fillcolor="#e99355"] ;
1 -> 9 ;
10 [label=<slice_timing_correction/ref_slice/first &le; 0.5<br/>squared_error = 0.018<br/>samples = 41.3%<br/>value = 0.717>, fillcolor="#e78b48"] ;
9 -> 10 ;
11 [label=<squared_error = 0.012<br/>samples = 29.3%<br/>value = 0.774>, fillcolor="#e58139"] ;
10 -> 11 ;
12 [label=<squared_error = 0.006<br/>samples = 12.0%<br/>value = 0.579>, fillcolor="#eca36e"] ;
10 -> 12 ;
13 [label=<spatial_smoothing/fwhm &le; 11.0<br/>squared_error = 0.004<br/>samples = 14.3%<br/>value = 0.539>, fillcolor="#eda978"] ;
9 -> 13 ;
14 [label=<squared_error = 0.001<br/>samples = 9.7%<br/>value = 0.575>, fillcolor="#eca36f"] ;
13 -> 14 ;
15 [label=<squared_error = 0.001<br/>samples = 4.6%<br/>value = 0.463>, fillcolor="#f0b68d"] ;
13 -> 15 ;
16 [label=<spatial_smoothing/fwhm &le; 5.0<br/>squared_error = 0.003<br/>samples = 25.4%<br/>value = 0.115>, fillcolor="#fcf2eb"] ;
0 -> 16 [labeldistance=2.5, labelangle=-45, headlabel="False"] ;
17 [label=<spatial_smoothing/fwhm &le; 3.0<br/>squared_error = 0.001<br/>samples = 9.9%<br/>value = 0.064>, fillcolor="#fefbf9"] ;
16 -> 17 ;
18 [label=<spatial_smoothing/fwhm &le; 1.0<br/>squared_error = 0.0<br/>samples = 6.9%<br/>value = 0.051>, fillcolor="#fffdfc"] ;
17 -> 18 ;
19 [label=<squared_error = 0.0<br/>samples = 3.6%<br/>value = 0.041>, fillcolor="#ffffff"] ;
18 -> 19 ;
20 [label=<squared_error = 0.0<br/>samples = 3.3%<br/>value = 0.062>, fillcolor="#fefbf9"] ;
18 -> 20 ;
21 [label=<slice_timing_correction/ref_slice/first &le; 0.5<br/>squared_error = 0.0<br/>samples = 3.0%<br/>value = 0.096>, fillcolor="#fdf5f0"] ;
17 -> 21 ;
22 [label=<squared_error = 0.0<br/>samples = 2.4%<br/>value = 0.101>, fillcolor="#fdf5ef"] ;
21 -> 22 ;
23 [label=<squared_error = 0.0<br/>samples = 0.6%<br/>value = 0.075>, fillcolor="#fef9f6"] ;
21 -> 23 ;
24 [label=<spatial_smoothing/fwhm &le; 11.0<br/>squared_error = 0.001<br/>samples = 15.6%<br/>value = 0.147>, fillcolor="#fbede2"] ;
16 -> 24 ;
25 [label=<slice_timing_correction/ref_slice/first &le; 0.5<br/>squared_error = 0.001<br/>samples = 10.1%<br/>value = 0.132>, fillcolor="#fcefe6"] ;
24 -> 25 ;
26 [label=<squared_error = 0.001<br/>samples = 6.3%<br/>value = 0.145>, fillcolor="#fbede3"] ;
25 -> 26 ;
27 [label=<squared_error = 0.0<br/>samples = 3.9%<br/>value = 0.111>, fillcolor="#fdf3ec"] ;
25 -> 27 ;
28 [label=<signal_modeling/hrf/temporal_dispersion_derivs &le; 0.5<br/>squared_error = 0.001<br/>samples = 5.4%<br/>value = 0.174>, fillcolor="#fae8db"] ;
24 -> 28 ;
29 [label=<squared_error = 0.0<br/>samples = 3.9%<br/>value = 0.189>, fillcolor="#fae6d7"] ;
28 -> 29 ;
30 [label=<squared_error = 0.0<br/>samples = 1.6%<br/>value = 0.137>, fillcolor="#fceee5"] ;
28 -> 30 ;
{rank=same ; 0} ;
{rank=same ; 1; 16} ;
{rank=same ; 2; 9; 17; 24} ;
{rank=same ; 3; 6; 10; 13; 18; 21; 25; 28} ;
{rank=same ; 4; 5; 7; 8; 11; 12; 14; 15; 19; 20; 22; 23; 26; 27; 29; 30} ;
}
