digraph Tree {
node [shape=box, style="filled, rounded", color="black", fontname="helvetica"] ;
edge [fontname="helvetica"] ;
0 [label=<coregistration/cost_function/normalised_cross_correlation &le; 0.5<br/>squared_error = 0.05<br/>samples = 700<br/>value = 0.419>, fillcolor="#f4cbae"] ;
1 [label=<signal_modeling/hrf/temporal_dispersion_derivs &le; 0.5<br/>squared_error = 0.02<br/>samples = 526<br/>value = 0.526>, fillcolor="#f1bd97"] ;
0 -> 1 [labeldistance=2.5, labelangle=45, headlabel="True"] ;
2 [label=<spatial_smoothing/fwhm/14 &le; 0.5<br/>squared_error = 0.009<br/>samples = 363<br/>value = 0.471>, fillcolor="#f3c4a3"] ;
1 -> 2 ;
3 [label=<spatial_smoothing/fwhm/12 &le; 0.5<br/>squared_error = 0.007<br/>samples = 317<br/>value = 0.491>, fillcolor="#f2c19e"] ;
2 -> 3 ;
4 [label=<squared_error = 0.006<br/>samples = 271<br/>value = 0.512>, fillcolor="#f2bf9a"] ;
3 -> 4 ;
5 [label=<squared_error = 0.001<br/>samples = 46<br/>value = 0.372>, fillcolor="#f6d1b7"] ;
3 -> 5 ;
6 [label=<slice_timing_correction/ref_slice/first &le; 0.5<br/>squared_error = 0.001<br/>samples = 46<br/>value = 0.331>, fillcolor="#f7d7c0"] ;
2 -> 6 ;
7 [label=<squared_error = 0.0<br/>samples = 30<br/>value = 0.351>, fillcolor="#f6d4bc"] ;
6 -> 7 ;
8 [label=<squared_error = 0.0<br/>samples = 16<br/>value = 0.292>, fillcolor="#f8dcc8"] ;
6 -> 8 ;
9 [label=<spatial_smoothing/fwhm/4 &le; 0.5<br/>squared_error = 0.021<br/>samples = 163<br/>value = 0.65>, fillcolor="#eeac7d"] ;
1 -> 9 ;
10 [label=<spatial_smoothing/fwhm/2 &le; 0.5<br/>squared_error = 0.015<br/>samples = 148<br/>value = 0.623>, fillcolor="#efb082"] ;
9 -> 10 ;
11 [label=<squared_error = 0.012<br/>samples = 124<br/>value = 0.594>, fillcolor="#efb489"] ;
10 -> 11 ;
12 [label=<squared_error = 0.003<br/>samples = 24<br/>value = 0.774>, fillcolor="#ea9b63"] ;
10 -> 12 ;
13 [label=<slice_timing_correction/ref_slice/first &le; 0.5<br/>squared_error = 0.009<br/>samples = 15<br/>value = 0.913>, fillcolor="#e78945"] ;
9 -> 13 ;
14 [label=<squared_error = 0.001<br/>samples = 11<br/>value = 0.97>, fillcolor="#e58139"] ;
13 -> 14 ;
15 [label=<squared_error = 0.0<br/>samples = 4<br/>value = 0.758>, fillcolor="#eb9e66"] ;
13 -> 15 ;
16 [label=<spatial_smoothing/fwhm &le; 0.5<br/>squared_error = 0.001<br/>samples = 174<br/>value = 0.095>, fillcolor="#fdf7f2"] ;
0 -> 16 [labeldistance=2.5, labelangle=-45, headlabel="False"] ;
17 [label=<signal_modeling/hrf/temporal_dispersion_derivs &le; 0.5<br/>squared_error = 0.0<br/>samples = 27<br/>value = 0.043>, fillcolor="#fffefd"] ;
16 -> 17 ;
18 [label=<slice_timing_correction/ref_slice/first &le; 0.5<br/>squared_error = 0.0<br/>samples = 15<br/>value = 0.039>, fillcolor="#fffefe"] ;
17 -> 18 ;
19 [label=<squared_error = 0.0<br/>samples = 10<br/>value = 0.041>, fillcolor="#fffefe"] ;
18 -> 19 ;
20 [label=<squared_error = 0.0<br/>samples = 5<br/>value = 0.034>, fillcolor="#ffffff"] ;
18 -> 20 ;
21 [label=<slice_timing_correction/ref_slice/first &le; 0.5<br/>squared_error = 0.0<br/>samples = 12<br/>value = 0.048>, fillcolor="#fffdfc"] ;
17 -> 21 ;
22 [label=<squared_error = 0.0<br/>samples = 8<br/>value = 0.05>, fillcolor="#fffdfc"] ;
21 -> 22 ;
23 [label=<squared_error = 0.0<br/>samples = 4<br/>value = 0.044>, fillcolor="#fffefd"] ;
21 -> 23 ;
24 [label=<spatial_smoothing/fwhm/2 &le; 0.5<br/>squared_error = 0.001<br/>samples = 147<br/>value = 0.105>, fillcolor="#fdf6f0"] ;
16 -> 24 ;
25 [label=<signal_modeling/hrf/temporal_dispersion_derivs &le; 0.5<br/>squared_error = 0.001<br/>samples = 119<br/>value = 0.115>, fillcolor="#fdf4ee"] ;
24 -> 25 ;
26 [label=<squared_error = 0.0<br/>samples = 77<br/>value = 0.102>, fillcolor="#fdf6f1"] ;
25 -> 26 ;
27 [label=<squared_error = 0.001<br/>samples = 42<br/>value = 0.138>, fillcolor="#fcf1e9"] ;
25 -> 27 ;
28 [label=<signal_modeling/hrf/temporal_dispersion_derivs &le; 0.5<br/>squared_error = 0.0<br/>samples = 28<br/>value = 0.062>, fillcolor="#fefbf9"] ;
24 -> 28 ;
29 [label=<squared_error = 0.0<br/>samples = 16<br/>value = 0.055>, fillcolor="#fefcfb"] ;
28 -> 29 ;
30 [label=<squared_error = 0.0<br/>samples = 12<br/>value = 0.072>, fillcolor="#fefaf7"] ;
28 -> 30 ;
}