digraph Tree {
node [shape=box, style="filled, rounded", color="black", fontname="helvetica"] ;
edge [fontname="helvetica"] ;
0 [label=<coregistration/cost_function/normalised_cross_correlation &le; 0.5<br/>squared_error = 0.063<br/>samples = 700<br/>value = 0.454>, fillcolor="#f3c4a3"] ;
1 [label=<spatial_smoothing/fwhm/4 &le; 0.5<br/>squared_error = 0.025<br/>samples = 528<br/>value = 0.573>, fillcolor="#f0b489"] ;
0 -> 1 [labeldistance=2.5, labelangle=45, headlabel="True"] ;
2 [label=<spatial_smoothing/fwhm/6 &le; 0.5<br/>squared_error = 0.018<br/>samples = 462<br/>value = 0.542>, fillcolor="#f0b890"] ;
1 -> 2 ;
3 [label=<spatial_smoothing/fwhm/2 &le; 0.5<br/>squared_error = 0.014<br/>samples = 406<br/>value = 0.52>, fillcolor="#f1bb95"] ;
2 -> 3 ;
4 [label=<squared_error = 0.01<br/>samples = 348<br/>value = 0.492>, fillcolor="#f2bf9b"] ;
3 -> 4 ;
5 [label=<squared_error = 0.013<br/>samples = 58<br/>value = 0.683>, fillcolor="#eca571"] ;
3 -> 5 ;
6 [label=<slice_timing_correction/ref_slice/first &le; 0.5<br/>squared_error = 0.015<br/>samples = 56<br/>value = 0.706>, fillcolor="#eca26c"] ;
2 -> 6 ;
7 [label=<squared_error = 0.008<br/>samples = 38<br/>value = 0.77>, fillcolor="#ea995e"] ;
6 -> 7 ;
8 [label=<squared_error = 0.002<br/>samples = 18<br/>value = 0.572>, fillcolor="#f0b489"] ;
6 -> 8 ;
9 [label=<slice_timing_correction/ref_slice/first &le; 0.5<br/>squared_error = 0.024<br/>samples = 66<br/>value = 0.788>, fillcolor="#e9965b"] ;
1 -> 9 ;
10 [label=<signal_modeling/hrf/temporal_dispersion_derivs &le; 0.5<br/>squared_error = 0.02<br/>samples = 45<br/>value = 0.855>, fillcolor="#e78d4c"] ;
9 -> 10 ;
11 [label=<squared_error = 0.001<br/>samples = 32<br/>value = 0.942>, fillcolor="#e58139"] ;
10 -> 11 ;
12 [label=<squared_error = 0.0<br/>samples = 13<br/>value = 0.641>, fillcolor="#eeab7a"] ;
10 -> 12 ;
13 [label=<signal_modeling/hrf/temporal_derivs &le; 0.5<br/>squared_error = 0.003<br/>samples = 21<br/>value = 0.642>, fillcolor="#eeaa7a"] ;
9 -> 13 ;
14 [label=<squared_error = 0.0<br/>samples = 10<br/>value = 0.586>, fillcolor="#efb286"] ;
13 -> 14 ;
15 [label=<squared_error = 0.0<br/>samples = 11<br/>value = 0.694>, fillcolor="#eca36f"] ;
13 -> 15 ;
16 [label=<spatial_smoothing/fwhm &le; 0.5<br/>squared_error = 0.001<br/>samples = 172<br/>value = 0.088>, fillcolor="#fdf7f2"] ;
0 -> 16 [labeldistance=2.5, labelangle=-45, headlabel="False"] ;
17 [label=<slice_timing_correction/ref_slice/first &le; 0.5<br/>squared_error = 0.0<br/>samples = 28<br/>value = 0.035>, fillcolor="#fffefe"] ;
16 -> 17 ;
18 [label=<signal_modeling/hrf/temporal_dispersion_derivs &le; 0.5<br/>squared_error = 0.0<br/>samples = 19<br/>value = 0.038>, fillcolor="#fffefd"] ;
17 -> 18 ;
19 [label=<squared_error = 0.0<br/>samples = 10<br/>value = 0.041>, fillcolor="#fffdfc"] ;
18 -> 19 ;
20 [label=<squared_error = 0.0<br/>samples = 9<br/>value = 0.034>, fillcolor="#fffefe"] ;
18 -> 20 ;
21 [label=<signal_modeling/hrf/temporal_derivs &le; 0.5<br/>squared_error = 0.0<br/>samples = 9<br/>value = 0.03>, fillcolor="#ffffff"] ;
17 -> 21 ;
22 [label=<squared_error = 0.0<br/>samples = 7<br/>value = 0.029>, fillcolor="#ffffff"] ;
21 -> 22 ;
23 [label=<squared_error = 0.0<br/>samples = 2<br/>value = 0.032>, fillcolor="#fffffe"] ;
21 -> 23 ;
24 [label=<spatial_smoothing/fwhm/2 &le; 0.5<br/>squared_error = 0.001<br/>samples = 144<br/>value = 0.098>, fillcolor="#fdf6f0"] ;
16 -> 24 ;
25 [label=<slice_timing_correction/ref_slice/first &le; 0.5<br/>squared_error = 0.001<br/>samples = 122<br/>value = 0.106>, fillcolor="#fdf4ee"] ;
24 -> 25 ;
26 [label=<squared_error = 0.001<br/>samples = 81<br/>value = 0.116>, fillcolor="#fdf3ec"] ;
25 -> 26 ;
27 [label=<squared_error = 0.0<br/>samples = 41<br/>value = 0.088>, fillcolor="#fdf7f2"] ;
25 -> 27 ;
28 [label=<slice_timing_correction/ref_slice/first &le; 0.5<br/>squared_error = 0.0<br/>samples = 22<br/>value = 0.053>, fillcolor="#fefcfa"] ;
24 -> 28 ;
29 [label=<squared_error = 0.0<br/>samples = 17<br/>value = 0.057>, fillcolor="#fefbf9"] ;
28 -> 29 ;
30 [label=<squared_error = 0.0<br/>samples = 5<br/>value = 0.042>, fillcolor="#fffdfc"] ;
28 -> 30 ;
}