digraph Tree {
node [shape=box, style="filled, rounded", color="black", fontname="helvetica"] ;
edge [fontname="helvetica"] ;
0 [label=<coregistration/cost_function/normalised_cross_correlation &le; 0.5<br/>squared_error = 0.066<br/>samples = 700<br/>value = 0.485>, fillcolor="#efaf82"] ;
1 [label=<spatial_smoothing/fwhm &le; 0.5<br/>squared_error = 0.027<br/>samples = 531<br/>value = 0.604>, fillcolor="#ea9a61"] ;
0 -> 1 [labeldistance=2.5, labelangle=45, headlabel="True"] ;
2 [label=<slice_timing_correction/ref_slice/first &le; 0.5<br/>squared_error = 0.003<br/>samples = 75<br/>value = 0.37>, fillcolor="#f3c4a2"] ;
1 -> 2 ;
3 [label=<signal_modeling/hrf/temporal_dispersion_derivs &le; 0.5<br/>squared_error = 0.002<br/>samples = 47<br/>value = 0.398>, fillcolor="#f2bf9a"] ;
2 -> 3 ;
4 [label=<squared_error = 0.0<br/>samples = 33<br/>value = 0.426>, fillcolor="#f1ba92"] ;
3 -> 4 ;
5 [label=<squared_error = 0.0<br/>samples = 14<br/>value = 0.333>, fillcolor="#f4caac"] ;
3 -> 5 ;
6 [label=<signal_modeling/hrf/temporal_derivs &le; 0.5<br/>squared_error = 0.0<br/>samples = 28<br/>value = 0.322>, fillcolor="#f4ccaf"] ;
2 -> 6 ;
7 [label=<squared_error = 0.0<br/>samples = 20<br/>value = 0.309>, fillcolor="#f5ceb2"] ;
6 -> 7 ;
8 [label=<squared_error = 0.0<br/>samples = 8<br/>value = 0.354>, fillcolor="#f3c6a6"] ;
6 -> 8 ;
9 [label=<signal_modeling/hrf/temporal_dispersion_derivs &le; 0.5<br/>squared_error = 0.021<br/>samples = 456<br/>value = 0.643>, fillcolor="#e99456"] ;
1 -> 9 ;
10 [label=<slice_timing_correction/ref_slice/first &le; 0.5<br/>squared_error = 0.019<br/>samples = 327<br/>value = 0.691>, fillcolor="#e78b49"] ;
9 -> 10 ;
11 [label=<squared_error = 0.014<br/>samples = 229<br/>value = 0.748>, fillcolor="#e58139"] ;
10 -> 11 ;
12 [label=<squared_error = 0.006<br/>samples = 98<br/>value = 0.556>, fillcolor="#eca36e"] ;
10 -> 12 ;
13 [label=<spatial_smoothing/fwhm/6 &le; 0.5<br/>squared_error = 0.004<br/>samples = 129<br/>value = 0.522>, fillcolor="#eda978"] ;
9 -> 13 ;
14 [label=<squared_error = 0.004<br/>samples = 111<br/>value = 0.508>, fillcolor="#eeab7b"] ;
13 -> 14 ;
15 [label=<squared_error = 0.001<br/>samples = 18<br/>value = 0.604>, fillcolor="#ea9a61"] ;
13 -> 15 ;
16 [label=<spatial_smoothing/fwhm &le; 0.5<br/>squared_error = 0.002<br/>samples = 169<br/>value = 0.112>, fillcolor="#fcf1e9"] ;
0 -> 16 [labeldistance=2.5, labelangle=-45, headlabel="False"] ;
17 [label=<slice_timing_correction/ref_slice/first &le; 0.5<br/>squared_error = 0.0<br/>samples = 21<br/>value = 0.039>, fillcolor="#fffefd"] ;
16 -> 17 ;
18 [label=<signal_modeling/hrf/temporal_dispersion_derivs &le; 0.5<br/>squared_error = 0.0<br/>samples = 13<br/>value = 0.042>, fillcolor="#fffdfc"] ;
17 -> 18 ;
19 [label=<squared_error = 0.0<br/>samples = 6<br/>value = 0.047>, fillcolor="#fefcfb"] ;
18 -> 19 ;
20 [label=<squared_error = 0.0<br/>samples = 7<br/>value = 0.037>, fillcolor="#fffefe"] ;
18 -> 20 ;
21 [label=<signal_modeling/hrf/temporal_derivs &le; 0.5<br/>squared_error = 0.0<br/>samples = 8<br/>value = 0.034>, fillcolor="#ffffff"] ;
17 -> 21 ;
22 [label=<squared_error = 0.0<br/>samples = 6<br/>value = 0.033>, fillcolor="#ffffff"] ;
21 -> 22 ;
23 [label=<squared_error = 0.0<br/>samples = 2<br/>value = 0.037>, fillcolor="#fffefe"] ;
21 -> 23 ;
24 [label=<spatial_smoothing/fwhm/2 &le; 0.5<br/>squared_error = 0.002<br/>samples = 148<br/>value = 0.123>, fillcolor="#fcefe6"] ;
16 -> 24 ;
25 [label=<spatial_smoothing/fwhm/4 &le; 0.5<br/>squared_error = 0.001<br/>samples = 123<br/>value = 0.135>, fillcolor="#fbede3"] ;
24 -> 25 ;
26 [label=<squared_error = 0.001<br/>samples = 102<br/>value = 0.143>, fillcolor="#fbebe0"] ;
25 -> 26 ;
27 [label=<squared_error = 0.0<br/>samples = 21<br/>value = 0.097>, fillcolor="#fdf4ed"] ;
25 -> 27 ;
28 [label=<slice_timing_correction/ref_slice/first &le; 0.5<br/>squared_error = 0.0<br/>samples = 25<br/>value = 0.062>, fillcolor="#fefaf7"] ;
24 -> 28 ;
29 [label=<squared_error = 0.0<br/>samples = 19<br/>value = 0.066>, fillcolor="#fef9f6"] ;
28 -> 29 ;
30 [label=<squared_error = 0.0<br/>samples = 6<br/>value = 0.049>, fillcolor="#fefcfa"] ;
28 -> 30 ;
}