digraph Tree {
node [shape=box, style="filled, rounded", color="black", fontname="helvetica"] ;
edge [fontname="helvetica"] ;
0 [label=<coregistration/cost_function/normalised_cross_correlation &le; 0.5<br/>squared_error = 0.011<br/>samples = 700<br/>value = 0.362>, fillcolor="#eca470"] ;
1 [label=<spatial_smoothing/fwhm &le; 0.5<br/>squared_error = 0.003<br/>samples = 519<br/>value = 0.416>, fillcolor="#e89151"] ;
0 -> 1 [labeldistance=2.5, labelangle=45, headlabel="True"] ;
2 [label=<slice_timing_correction/ref_slice/first &le; 0.5<br/>squared_error = 0.0<br/>samples = 66<br/>value = 0.301>, fillcolor="#f1bb94"] ;
1 -> 2 ;
3 [label=<signal_modeling/hrf/temporal_dispersion_derivs &le; 0.5<br/>squared_error = 0.0<br/>samples = 40<br/>value = 0.312>, fillcolor="#f0b78e"] ;
2 -> 3 ;
4 [label=<squared_error = 0.0<br/>samples = 26<br/>value = 0.318>, fillcolor="#f0b58a"] ;
3 -> 4 ;
5 [label=<squared_error = 0.0<br/>samples = 14<br/>value = 0.301>, fillcolor="#f1bb94"] ;
3 -> 5 ;
6 [label=<signal_modeling/hrf/temporal_derivs &le; 0.5<br/>squared_error = 0.0<br/>samples = 26<br/>value = 0.284>, fillcolor="#f2c19e"] ;
2 -> 6 ;
7 [label=<squared_error = 0.0<br/>samples = 21<br/>value = 0.28>, fillcolor="#f3c3a0"] ;
6 -> 7 ;
8 [label=<squared_error = 0.0<br/>samples = 5<br/>value = 0.297>, fillcolor="#f1bc96"] ;
6 -> 8 ;
9 [label=<spatial_smoothing/fwhm/2 &le; 0.5<br/>squared_error = 0.002<br/>samples = 453<br/>value = 0.432>, fillcolor="#e78a48"] ;
1 -> 9 ;
10 [label=<slice_timing_correction/ref_slice/first &le; 0.5<br/>squared_error = 0.001<br/>samples = 388<br/>value = 0.442>, fillcolor="#e68742"] ;
9 -> 10 ;
11 [label=<squared_error = 0.001<br/>samples = 266<br/>value = 0.458>, fillcolor="#e58139"] ;
10 -> 11 ;
12 [label=<squared_error = 0.0<br/>samples = 122<br/>value = 0.408>, fillcolor="#e99456"] ;
10 -> 12 ;
13 [label=<slice_timing_correction/ref_slice/first &le; 0.5<br/>squared_error = 0.0<br/>samples = 65<br/>value = 0.375>, fillcolor="#eba069"] ;
9 -> 13 ;
14 [label=<squared_error = 0.0<br/>samples = 47<br/>value = 0.385>, fillcolor="#eb9c63"] ;
13 -> 14 ;
15 [label=<squared_error = 0.0<br/>samples = 18<br/>value = 0.348>, fillcolor="#edaa79"] ;
13 -> 15 ;
16 [label=<spatial_smoothing/fwhm &le; 0.5<br/>squared_error = 0.002<br/>samples = 181<br/>value = 0.21>, fillcolor="#f8ddc9"] ;
0 -> 16 [labeldistance=2.5, labelangle=-45, headlabel="False"] ;
17 [label=<slice_timing_correction/ref_slice/first &le; 0.5<br/>squared_error = 0.0<br/>samples = 29<br/>value = 0.127>, fillcolor="#fefbf9"] ;
16 -> 17 ;
18 [label=<signal_modeling/hrf/temporal_dispersion_derivs &le; 0.5<br/>squared_error = 0.0<br/>samples = 19<br/>value = 0.132>, fillcolor="#fefaf7"] ;
17 -> 18 ;
19 [label=<squared_error = 0.0<br/>samples = 11<br/>value = 0.135>, fillcolor="#fef9f5"] ;
18 -> 19 ;
20 [label=<squared_error = 0.0<br/>samples = 8<br/>value = 0.128>, fillcolor="#fefbf9"] ;
18 -> 20 ;
21 [label=<signal_modeling/hrf/temporal_derivs &le; 0.5<br/>squared_error = 0.0<br/>samples = 10<br/>value = 0.119>, fillcolor="#fffffe"] ;
17 -> 21 ;
22 [label=<squared_error = 0.0<br/>samples = 8<br/>value = 0.117>, fillcolor="#ffffff"] ;
21 -> 22 ;
23 [label=<squared_error = 0.0<br/>samples = 2<br/>value = 0.124>, fillcolor="#fffdfb"] ;
21 -> 23 ;
24 [label=<spatial_smoothing/fwhm/2 &le; 0.5<br/>squared_error = 0.001<br/>samples = 152<br/>value = 0.226>, fillcolor="#f7d7c0"] ;
16 -> 24 ;
25 [label=<spatial_smoothing/fwhm/4 &le; 0.5<br/>squared_error = 0.001<br/>samples = 125<br/>value = 0.239>, fillcolor="#f6d2b8"] ;
24 -> 25 ;
26 [label=<squared_error = 0.0<br/>samples = 109<br/>value = 0.244>, fillcolor="#f5d0b5"] ;
25 -> 26 ;
27 [label=<squared_error = 0.0<br/>samples = 16<br/>value = 0.206>, fillcolor="#f8decc"] ;
25 -> 27 ;
28 [label=<slice_timing_correction/ref_slice/first &le; 0.5<br/>squared_error = 0.0<br/>samples = 27<br/>value = 0.164>, fillcolor="#fbeee4"] ;
24 -> 28 ;
29 [label=<squared_error = 0.0<br/>samples = 19<br/>value = 0.169>, fillcolor="#fbece1"] ;
28 -> 29 ;
30 [label=<squared_error = 0.0<br/>samples = 8<br/>value = 0.152>, fillcolor="#fcf2eb"] ;
28 -> 30 ;
}