digraph Tree {
node [shape=box, style="filled, rounded", color="black", fontname="helvetica"] ;
edge [fontname="helvetica"] ;
0 [label=<coregistration/cost_function/normalised_cross_correlation &le; 0.5<br/>squared_error = 0.048<br/>samples = 700<br/>value = 0.418>, fillcolor="#f1bb94"] ;
1 [label=<spatial_smoothing/fwhm &le; 0.5<br/>squared_error = 0.025<br/>samples = 523<br/>value = 0.516>, fillcolor="#eda978"] ;
0 -> 1 [labeldistance=2.5, labelangle=45, headlabel="True"] ;
2 [label=<signal_modeling/hrf/temporal_dispersion_derivs &le; 0.5<br/>squared_error = 0.001<br/>samples = 64<br/>value = 0.261>, fillcolor="#f7d7c0"] ;
1 -> 2 ;
3 [label=<slice_timing_correction &le; 0.5<br/>squared_error = 0.0<br/>samples = 42<br/>value = 0.241>, fillcolor="#f7dac6"] ;
2 -> 3 ;
4 [label=<squared_error = 0.0<br/>samples = 9<br/>value = 0.235>, fillcolor="#f8dbc7"] ;
3 -> 4 ;
5 [label=<squared_error = 0.0<br/>samples = 33<br/>value = 0.242>, fillcolor="#f7dac5"] ;
3 -> 5 ;
6 [label=<slice_timing_correction/ref_slice/first &le; 0.5<br/>squared_error = 0.0<br/>samples = 22<br/>value = 0.301>, fillcolor="#f5d0b5"] ;
2 -> 6 ;
7 [label=<squared_error = 0.0<br/>samples = 15<br/>value = 0.289>, fillcolor="#f6d2b8"] ;
6 -> 7 ;
8 [label=<squared_error = 0.0<br/>samples = 7<br/>value = 0.325>, fillcolor="#f4cbae"] ;
6 -> 8 ;
9 [label=<signal_modeling/hrf/temporal_dispersion_derivs &le; 0.5<br/>squared_error = 0.017<br/>samples = 459<br/>value = 0.552>, fillcolor="#eca36e"] ;
1 -> 9 ;
10 [label=<spatial_smoothing/fwhm/2 &le; 0.5<br/>squared_error = 0.004<br/>samples = 321<br/>value = 0.494>, fillcolor="#eead7e"] ;
9 -> 10 ;
11 [label=<squared_error = 0.002<br/>samples = 282<br/>value = 0.515>, fillcolor="#eda979"] ;
10 -> 11 ;
12 [label=<squared_error = 0.0<br/>samples = 39<br/>value = 0.345>, fillcolor="#f4c8a8"] ;
10 -> 12 ;
13 [label=<spatial_smoothing/fwhm/2 &le; 0.5<br/>squared_error = 0.022<br/>samples = 138<br/>value = 0.685>, fillcolor="#e78b49"] ;
9 -> 13 ;
14 [label=<squared_error = 0.01<br/>samples = 112<br/>value = 0.742>, fillcolor="#e58139"] ;
13 -> 14 ;
15 [label=<squared_error = 0.001<br/>samples = 26<br/>value = 0.443>, fillcolor="#f0b68d"] ;
13 -> 15 ;
16 [label=<spatial_smoothing/fwhm &le; 0.5<br/>squared_error = 0.004<br/>samples = 177<br/>value = 0.127>, fillcolor="#fcefe5"] ;
0 -> 16 [labeldistance=2.5, labelangle=-45, headlabel="False"] ;
17 [label=<signal_modeling/hrf/temporal_dispersion_derivs &le; 0.5<br/>squared_error = 0.0<br/>samples = 26<br/>value = 0.047>, fillcolor="#fffdfc"] ;
16 -> 17 ;
18 [label=<slice_timing_correction/ref_slice/first &le; 0.5<br/>squared_error = 0.0<br/>samples = 14<br/>value = 0.04>, fillcolor="#fffefe"] ;
17 -> 18 ;
19 [label=<squared_error = 0.0<br/>samples = 9<br/>value = 0.043>, fillcolor="#fffefd"] ;
18 -> 19 ;
20 [label=<squared_error = 0.0<br/>samples = 5<br/>value = 0.036>, fillcolor="#ffffff"] ;
18 -> 20 ;
21 [label=<slice_timing_correction/ref_slice/middle &le; 0.5<br/>squared_error = 0.0<br/>samples = 12<br/>value = 0.055>, fillcolor="#fefcfa"] ;
17 -> 21 ;
22 [label=<squared_error = 0.0<br/>samples = 7<br/>value = 0.056>, fillcolor="#fefbf9"] ;
21 -> 22 ;
23 [label=<squared_error = 0.0<br/>samples = 5<br/>value = 0.052>, fillcolor="#fefcfa"] ;
21 -> 23 ;
24 [label=<spatial_smoothing/fwhm/2 &le; 0.5<br/>squared_error = 0.003<br/>samples = 151<br/>value = 0.141>, fillcolor="#fbece1"] ;
16 -> 24 ;
25 [label=<signal_modeling/hrf/temporal_dispersion_derivs &le; 0.5<br/>squared_error = 0.002<br/>samples = 127<br/>value = 0.155>, fillcolor="#fbeade"] ;
24 -> 25 ;
26 [label=<squared_error = 0.001<br/>samples = 86<br/>value = 0.134>, fillcolor="#fbeee4"] ;
25 -> 26 ;
27 [label=<squared_error = 0.002<br/>samples = 41<br/>value = 0.199>, fillcolor="#f9e2d1"] ;
25 -> 27 ;
28 [label=<signal_modeling/hrf/temporal_dispersion_derivs &le; 0.5<br/>squared_error = 0.0<br/>samples = 24<br/>value = 0.071>, fillcolor="#fef9f5"] ;
24 -> 28 ;
29 [label=<squared_error = 0.0<br/>samples = 14<br/>value = 0.062>, fillcolor="#fefaf8"] ;
28 -> 29 ;
30 [label=<squared_error = 0.0<br/>samples = 10<br/>value = 0.085>, fillcolor="#fdf6f1"] ;
28 -> 30 ;
}